<?xml version="1.0"?>
<opencv_storage>
<stage7>
  <maxWeakCount>8</maxWeakCount>
  <stageThreshold>-1.1600019931793213e+00</stageThreshold>
  <weakClassifiers>
    <_>
      <internalNodes>
        0 -1 1542878 1.0927311331033707e-01</internalNodes>
      <leafValues>
        -5.2086138725280762e-01 5.2380955219268799e-01</leafValues></_>
    <_>
      <internalNodes>
        0 -1 1933385 -7.6862488640472293e-04</internalNodes>
      <leafValues>
        -6.6080212593078613e-01 2.4220211803913116e-01</leafValues></_>
    <_>
      <internalNodes>
        0 -1 52 -1.0574971383903176e-04</internalNodes>
      <leafValues>
        -8.1469607353210449e-01 1.7867402732372284e-01</leafValues></_>
    <_>
      <internalNodes>
        0 -1 890707 1.0989608708769083e-03</internalNodes>
      <leafValues>
        2.7774199843406677e-01 -6.1071962118148804e-01</leafValues></_>
    <_>
      <internalNodes>
        0 -1 35212 -1.7145808669738472e-04</internalNodes>
      <leafValues>
        -7.9045695066452026e-01 1.9809679687023163e-01</leafValues></_>
    <_>
      <internalNodes>
        0 -1 467027 -1.9248002767562866e-01</internalNodes>
      <leafValues>
        5.7450294494628906e-01 -3.1534779071807861e-01</leafValues></_>
    <_>
      <internalNodes>
        0 -1 1528533 -7.9772109165787697e-03</internalNodes>
      <leafValues>
        5.1510351896286011e-01 -2.9125145077705383e-01</leafValues></_>
    <_>
      <internalNodes>
        0 -1 9418 1.0023128561442718e-04</internalNodes>
      <leafValues>
        2.3404374718666077e-01 -7.4224120378494263e-01</leafValues></_></weakClassifiers></stage7>
</opencv_storage>
