<?xml version="1.0"?>
<opencv_storage>
<stage6>
  <maxWeakCount>6</maxWeakCount>
  <stageThreshold>-1.0879846811294556e+00</stageThreshold>
  <weakClassifiers>
    <_>
      <internalNodes>
        0 -1 78450 -8.5263658547773957e-05</internalNodes>
      <leafValues>
        7.9754598438739777e-02 -8.2481753826141357e-01</leafValues></_>
    <_>
      <internalNodes>
        0 -1 70618 1.9866220653057098e-02</internalNodes>
      <leafValues>
        -3.5005295276641846e-01 8.0126607418060303e-01</leafValues></_>
    <_>
      <internalNodes>
        0 -1 77777 -1.3616342097520828e-02</internalNodes>
      <leafValues>
        -8.7874227762222290e-01 2.7525919675827026e-01</leafValues></_>
    <_>
      <internalNodes>
        0 -1 2190 1.7909944057464600e-02</internalNodes>
      <leafValues>
        2.4111111462116241e-01 -8.7973803281784058e-01</leafValues></_>
    <_>
      <internalNodes>
        0 -1 19373 -4.1150958277285099e-03</internalNodes>
      <leafValues>
        3.2453402876853943e-01 -6.7051309347152710e-01</leafValues></_>
    <_>
      <internalNodes>
        0 -1 54427 -9.3441572971642017e-05</internalNodes>
      <leafValues>
        4.5730561017990112e-01 -5.0326937437057495e-01</leafValues></_></weakClassifiers></stage6>
</opencv_storage>
