<?xml version="1.0"?>
<opencv_storage>
<stage7>
  <maxWeakCount>6</maxWeakCount>
  <stageThreshold>-1.0117955207824707e+00</stageThreshold>
  <weakClassifiers>
    <_>
      <internalNodes>
        0 -1 64485 1.3002786040306091e-01</internalNodes>
      <leafValues>
        -5.0972759723663330e-01 7.2093021869659424e-01</leafValues></_>
    <_>
      <internalNodes>
        0 -1 31885 -6.3625402748584747e-02</internalNodes>
      <leafValues>
        5.5759930610656738e-01 -4.0993076562881470e-01</leafValues></_>
    <_>
      <internalNodes>
        0 -1 77408 -2.2951888968236744e-04</internalNodes>
      <leafValues>
        -7.8123271465301514e-01 2.5971230864524841e-01</leafValues></_>
    <_>
      <internalNodes>
        0 -1 20580 -1.8060863018035889e-01</internalNodes>
      <leafValues>
        8.5545772314071655e-01 -2.6242506504058838e-01</leafValues></_>
    <_>
      <internalNodes>
        0 -1 64155 4.0506124496459961e-03</internalNodes>
      <leafValues>
        -3.2233744859695435e-01 6.2420320510864258e-01</leafValues></_>
    <_>
      <internalNodes>
        0 -1 6089 3.5155937075614929e-04</internalNodes>
      <leafValues>
        2.3291306197643280e-01 -8.2340651750564575e-01</leafValues></_></weakClassifiers></stage7>
</opencv_storage>
